tree
version=v4
num_class=1
num_tree_per_iteration=1
label_index=0
max_feature_idx=3
objective=binary sigmoid:1
feature_names=Column_0 Column_1 Column_2 Column_3
feature_infos=[-2.3250307746388343:1.8164759408811439] [-2.2035098806466507:1.6891074524436731] [-2.3653039062769743:1.8220113633283233] [-2.3982328653977714:2.0023925836452552]
tree_sizes=350 356 356 355 358 357 358 355

Tree=0
num_leaves=2
num_cat=0
split_feature=0
split_gain=28.8333
threshold=-0.14713505497574578
decision_type=2
left_child=-1
right_child=-2
leaf_value=-0.01870804175844093 0.29000004388644157
leaf_weight=5.2164000570774078 7.2036000788211823
leaf_count=21 29
internal_value=0.160343
internal_weight=12.42
internal_count=50
is_linear=0
shrinkage=1


Tree=1
num_leaves=2
num_cat=0
split_feature=0
split_gain=23.414
threshold=-0.14713505497574578
decision_type=2
left_child=-1
right_child=-2
leaf_value=-0.16004801466407112 0.11848578265166393
leaf_weight=5.2495406270027161 7.0996801406145096
leaf_count=21 29
internal_value=8.36168e-05
internal_weight=12.3492
internal_count=50
is_linear=0
shrinkage=0.1


Tree=2
num_leaves=2
num_cat=0
split_feature=0
split_gain=20.2464
threshold=0.22648741142088458
decision_type=2
left_child=-1
right_child=-2
leaf_value=-0.11280378187531044 0.14751470341849907
leaf_weight=6.8872648179531097 5.2767996490001678
leaf_count=28 22
internal_value=0.000122987
internal_weight=12.1641
internal_count=50
is_linear=0
shrinkage=0.1


Tree=3
num_leaves=2
num_cat=0
split_feature=0
split_gain=16.8043
threshold=0.22648741142088458
decision_type=2
left_child=-1
right_child=-2
leaf_value=-0.10206468500701774 0.13772626191121337
leaf_weight=6.8522910326719284 5.095915675163269
leaf_count=28 22
internal_value=0.000206265
internal_weight=11.9482
internal_count=50
is_linear=0
shrinkage=0.1


Tree=4
num_leaves=2
num_cat=0
split_feature=0
split_gain=14.6263
threshold=-0.14713505497574578
decision_type=2
left_child=-1
right_child=-2
leaf_value=-0.12787072424252585 0.098053033981842064
leaf_weight=5.0517792999744415 6.6216451525688171
leaf_count=21 29
internal_value=0.000282498
internal_weight=11.6734
internal_count=50
is_linear=0
shrinkage=0.1


Tree=5
num_leaves=2
num_cat=0
split_feature=0
split_gain=12.4042
threshold=0.22648741142088458
decision_type=2
left_child=-1
right_child=-2
leaf_value=-0.088031526123092216 0.12412032182245694
leaf_weight=6.6219356060028076 4.7206659018993378
leaf_count=28 22
internal_value=0.000263738
internal_weight=11.3426
internal_count=50
is_linear=0
shrinkage=0.1


Tree=6
num_leaves=2
num_cat=0
split_feature=0
split_gain=10.8186
threshold=-0.14713505497574578
decision_type=2
left_child=-1
right_child=-2
leaf_value=-0.11261634226949324 0.087300931127903908
leaf_weight=4.7910544574260712 6.2225294709205627
leaf_count=21 29
internal_value=0.000334277
internal_weight=11.0136
internal_count=50
is_linear=0
shrinkage=0.1


Tree=7
num_leaves=2
num_cat=0
split_feature=0
split_gain=9.31108
threshold=0.22648741142088458
decision_type=2
left_child=-1
right_child=-2
leaf_value=-0.076896429926480131 0.11351718601696646
leaf_weight=6.33440200984478 4.3190599381923676
leaf_count=28 22
internal_value=0.000299868
internal_weight=10.6535
internal_count=50
is_linear=0
shrinkage=0.1


end of trees

feature_importances:
Column_0=8

parameters:
[boosting: gbdt]
[objective: binary]
[metric: binary_logloss]
[tree_learner: serial]
[device_type: cpu]
[data_sample_strategy: bagging]
[data: ]
[valid: ]
[num_iterations: 8]
[learning_rate: 0.1]
[num_leaves: 31]
[num_threads: 12]
[seed: 0]
[deterministic: 0]
[force_col_wise: 0]
[force_row_wise: 0]
[histogram_pool_size: -1]
[max_depth: -1]
[min_data_in_leaf: 20]
[min_sum_hessian_in_leaf: 0.001]
[bagging_fraction: 1]
[pos_bagging_fraction: 1]
[neg_bagging_fraction: 1]
[bagging_freq: 0]
[bagging_seed: 7719]
[bagging_by_query: 0]
[feature_fraction: 1]
[feature_fraction_bynode: 1]
[feature_fraction_seed: 2437]
[extra_trees: 0]
[extra_seed: 11797]
[early_stopping_round: 0]
[early_stopping_min_delta: 0]
[first_metric_only: 0]
[max_delta_step: 0]
[lambda_l1: 0]
[lambda_l2: 0]
[linear_lambda: 0]
[min_gain_to_split: 0]
[drop_rate: 0.1]
[max_drop: 50]
[skip_drop: 0.5]
[xgboost_dart_mode: 0]
[uniform_drop: 0]
[drop_seed: 21238]
[top_rate: 0.2]
[other_rate: 0.1]
[min_data_per_group: 100]
[max_cat_threshold: 32]
[cat_l2: 10]
[cat_smooth: 10]
[max_cat_to_onehot: 4]
[top_k: 20]
[monotone_constraints: ]
[monotone_constraints_method: basic]
[monotone_penalty: 0]
[feature_contri: ]
[forcedsplits_filename: ]
[refit_decay_rate: 0.9]
[cegb_tradeoff: 1]
[cegb_penalty_split: 0]
[cegb_penalty_feature_lazy: ]
[cegb_penalty_feature_coupled: ]
[path_smooth: 0]
[interaction_constraints: ]
[verbosity: -1]
[saved_feature_importance_type: 0]
[use_quantized_grad: 0]
[num_grad_quant_bins: 4]
[quant_train_renew_leaf: 0]
[stochastic_rounding: 1]
[linear_tree: 0]
[max_bin: 255]
[max_bin_by_feature: ]
[min_data_in_bin: 3]
[bin_construct_sample_cnt: 200000]
[data_random_seed: 38]
[is_enable_sparse: 1]
[enable_bundle: 1]
[use_missing: 1]
[zero_as_missing: 0]
[feature_pre_filter: 1]
[pre_partition: 0]
[two_round: 0]
[header: 0]
[label_column: ]
[weight_column: ]
[group_column: ]
[ignore_column: ]
[categorical_feature: ]
[forcedbins_filename: ]
[precise_float_parser: 0]
[parser_config_file: ]
[objective_seed: 8855]
[num_class: 1]
[is_unbalance: 0]
[scale_pos_weight: 1]
[sigmoid: 1]
[boost_from_average: 1]
[reg_sqrt: 0]
[alpha: 0.9]
[fair_c: 1]
[poisson_max_delta_step: 0.7]
[tweedie_variance_power: 1.5]
[lambdarank_truncation_level: 30]
[lambdarank_norm: 1]
[label_gain: ]
[lambdarank_position_bias_regularization: 0]
[eval_at: ]
[multi_error_top_k: 1]
[auc_mu_weights: ]
[num_machines: 1]
[local_listen_port: 12400]
[time_out: 120]
[machine_list_filename: ]
[machines: ]
[gpu_platform_id: -1]
[gpu_device_id: -1]
[gpu_use_dp: 0]
[num_gpu: 1]

end of parameters

pandas_categorical:null
